nep4_zbl 3 C N Ga 
zbl 1 2
cutoff 8 5 416 104
n_max 4 4
basis_size 8 8
l_max 4 2 0
ANN 30 0
 -3.3823690e-01
  1.2108285e-01
  6.2856627e-01
  3.4635093e-02
 -1.2080297e+00
  4.3286782e-02
 -2.9562142e-01
 -1.1021628e+00
 -7.1752239e-03
  5.7468688e-01
  1.6811542e-01
  3.2369869e-03
  1.1808525e+00
  8.9344776e-01
  2.9992038e-02
 -1.6194540e-01
  5.7269359e-01
  4.0393832e-01
 -8.3123893e-01
  2.6779974e-02
  1.6353253e+00
  2.8476763e-01
  3.2389245e+00
 -2.1237054e+00
 -5.2182227e-01
 -2.1201342e-02
  1.6474006e-01
  6.8596750e-01
 -7.8536737e-01
 -1.0725838e+00
 -3.3982769e-01
 -1.1897647e+00
  3.0842984e+00
 -1.0487357e-01
 -2.5919926e+00
 -7.5404269e-01
  1.7621335e+00
 -3.1542680e-01
  1.8855708e+00
 -1.6107090e+00
  3.1774792e-01
  9.2962146e-02
 -3.1244865e-01
  2.6086659e+00
 -3.7324469e+00
 -5.7528448e-01
 -4.2225054e-01
 -1.4255959e+00
 -5.1232356e-01
  7.6792717e-02
 -3.2077372e-01
  1.3117073e+00
 -1.5715826e+00
 -2.1804868e-01
  5.9599674e-01
  2.2997490e-01
 -1.8769795e-02
 -2.4508741e+00
 -1.5121089e+00
 -3.9836130e-01
  1.0294657e+00
  7.7763021e-01
 -2.3791312e-01
  3.1063721e+00
  1.0511069e+00
  6.2948865e-01
  1.3617380e+00
 -1.5609038e+00
  5.3056097e-01
  1.4947395e-02
 -4.9152786e-01
 -1.0233431e+00
 -2.5367114e-01
 -7.6320004e-01
  1.2089323e+00
  3.4917802e-02
  1.2064865e-01
  1.1117483e+00
  1.7263533e+00
  1.8546624e-01
  1.1451463e+00
 -2.3556153e-01
 -3.3587950e-01
 -8.7423974e-01
  1.4336818e+00
 -2.9074533e+00
 -2.5072491e-02
 -1.1755942e+00
  2.1991564e-01
 -1.1665513e-01
 -1.2289838e-01
  1.7995222e-02
 -1.2242419e-01
  1.3913351e-01
  1.7704263e-02
  1.6741294e-01
 -9.9388622e-02
 -7.3706873e-02
 -1.3444108e-01
 -6.7272067e-02
 -7.4618734e-02
 -6.2110770e-02
 -1.2011168e-02
  1.7229910e+00
 -1.0699339e-01
 -9.3292487e-01
 -1.0865378e+00
 -1.4936198e-01
 -2.1863077e+00
  1.7980656e-03
  2.2110858e+00
  1.0497996e-01
  1.0178275e-01
 -9.1466099e-02
  1.5389735e-01
 -4.2882305e-01
  2.8550979e-01
  1.5935794e+00
  2.0839886e-01
  3.2830468e-01
 -5.3990588e-02
  1.7325121e+00
  1.4234659e-01
  5.5944122e-02
 -5.1191014e-01
  1.7922466e-01
 -4.4345045e-01
  1.1845391e-01
  1.6121165e+00
 -5.2042049e-01
  7.7592707e-01
 -7.5489707e-02
  7.9880315e-01
 -3.2754529e-02
  5.1897470e-02
 -8.2555199e-01
  3.2702440e-01
 -1.0941390e-01
 -4.8374156e-03
 -9.5659591e-02
  3.3915326e-01
 -8.0995075e-02
 -1.8511865e+00
  5.2163024e-03
 -1.4115551e-02
 -1.3288070e-01
 -1.3290994e-01
  4.3787938e-02
  1.2163001e-01
  1.0971507e-01
  5.3846729e-01
 -1.6560595e+00
 -6.5077698e-01
 -3.1231549e-01
 -8.9297250e-02
 -7.2564268e-01
 -1.6645174e-01
  5.1709265e-01
  1.5770175e-01
 -1.5014490e-01
 -9.7343683e-01
 -1.6583011e-01
 -1.2535856e+00
  1.2432560e-01
 -1.4023033e-02
  5.7171720e-01
  1.3060944e-01
  4.7461557e-01
  2.0828640e+00
  2.9793537e-01
  2.6012650e+00
 -5.6229301e-02
  2.0977533e+00
 -5.0141650e-01
  2.7435420e-02
  5.2553678e-01
  6.9619231e-02
 -3.5851807e-03
  1.5764081e-01
  2.2404151e-01
 -7.3510416e-02
 -6.8606550e-01
 -1.3986006e-01
  2.0243378e+00
  3.9406720e-01
  9.4835334e-02
 -1.8085763e-02
 -2.6310635e-01
  5.2029129e-02
 -3.6492065e-01
 -4.3581697e-01
 -4.8127469e-01
  1.2719948e+00
  8.6808425e-01
  9.3335193e-03
  5.9033670e-02
  6.1863923e-01
 -1.2745283e+00
  8.9039254e-01
 -5.5199867e-01
  1.0849639e+00
 -8.2219161e-02
 -4.8031718e-01
  6.4725935e-01
  8.8985823e-02
 -1.5686791e-02
  1.5495972e-01
  2.6681868e-03
 -6.0327142e-01
  1.0598747e-01
  1.4967670e-01
 -2.5526604e-01
  6.8054982e-02
 -5.2539772e-01
 -1.4361727e-01
 -1.5863984e+00
 -1.2242716e-01
 -1.8826659e+00
  8.4451400e-02
 -2.0153141e-01
  2.4292447e-01
  6.0904041e-02
 -7.2348094e-01
  2.0177277e-02
 -5.1058930e-01
  5.3285848e-02
  4.0333864e-01
  5.9426136e-02
 -7.1380720e-02
 -2.3270112e-03
 -1.6051285e-02
  5.5877402e-02
  3.7679017e-02
  8.7192832e-03
 -7.6450783e-01
  2.1951357e-01
 -2.0315565e-01
 -4.0761045e-01
 -8.8946499e-02
 -2.0657434e-01
  1.7304691e+00
 -1.2976255e+00
 -2.1950252e-01
  6.2256914e-01
  3.6488521e-01
 -8.1558479e-03
 -5.3320038e-01
  1.9591408e+00
 -8.4053017e-02
  5.9233610e-02
  5.7206649e-01
  3.7861202e+00
 -2.8309181e-01
  1.6366938e-01
  1.0883454e+00
  2.3197978e+00
 -1.7167202e+00
 -1.7348107e+00
 -2.5327113e-01
 -4.1226540e-02
 -4.7647685e-02
 -1.6938025e-01
  3.7615210e-01
  1.0117989e-01
  2.2247966e-02
 -8.7696806e-02
  1.8786040e-01
  1.3603538e-01
 -5.6079868e-02
  2.0795640e-01
  2.7175081e+00
  3.5025411e+00
 -2.0130591e+00
  7.9589915e-01
 -4.7719756e-01
 -6.6139609e-01
  1.8658930e+00
 -9.9420792e-01
 -1.2436005e+00
 -4.0932772e-01
 -9.8462099e-01
 -1.6354936e-01
 -1.1951363e+00
  1.6780139e+00
  1.0760474e-01
  2.0772529e+00
 -3.3871514e-01
  2.8480732e+00
  1.7799374e+00
  1.6885392e-02
  4.2745009e-01
  1.1838736e-01
  2.7436712e+00
  4.8770171e-01
 -1.6770085e+00
  2.1281429e-01
 -3.4355578e-01
  1.3139844e+00
  1.1744241e+00
  3.2926843e-01
  6.0732521e-02
 -1.1669533e+00
  5.7916965e-02
 -6.5360093e-01
 -1.0112496e-01
 -2.4001524e+00
  9.4894385e-01
 -1.0101086e-02
  1.3603692e+00
  1.4860295e+00
  9.3620473e-01
 -3.1732878e-01
 -3.5619208e-01
 -7.4112689e-01
  8.1209904e-03
 -5.0121617e-01
  4.4668016e-01
 -6.6715574e-01
  2.2419098e-01
 -4.3059564e-01
 -1.8787605e+00
 -1.3177748e+00
 -5.0751700e+00
  1.6217192e+00
  1.8159007e-01
 -1.2826340e-02
  7.2504091e-01
  7.2015184e-01
  7.9917677e-02
 -3.3935525e-03
  9.0635633e-01
  2.1786420e+00
  1.7370228e+00
  4.4257233e-01
 -2.7973595e-01
 -3.0420094e+00
  2.6212206e-01
 -7.1299332e-01
 -2.3349956e-01
 -5.9447806e-02
  5.5669528e-01
 -1.0370979e+00
  1.9069725e-01
  8.0071908e-01
  1.2014570e+00
  2.2816033e+00
 -1.5046689e-01
 -4.6630585e-01
 -1.4792805e+00
 -2.4220958e+00
 -1.4971603e-01
  7.1098998e-02
 -1.9929757e+00
  7.1003236e-02
 -8.3821839e-01
 -2.2472031e-01
  1.2196839e-02
  1.7341739e+00
 -7.5165413e-02
 -3.5993153e-01
 -6.1998617e-02
  3.4915635e-01
  1.2192435e-01
  2.1201156e-01
  7.7650934e-01
  7.4540865e-01
  1.0980110e-01
 -4.7337440e-01
 -3.2339659e-01
 -3.8248116e-01
 -6.8010233e-02
  2.0323768e+00
  1.6125246e+00
  4.1557157e-01
 -1.2770686e-02
  2.7111151e+00
  2.3057315e+00
  7.1063554e-01
  7.1315342e-01
 -6.1663456e-02
 -1.6264470e+00
 -3.0506891e-01
 -1.1435169e+00
 -6.6586338e-02
 -1.8103447e+00
 -1.3398980e-01
  9.6936381e-01
  1.3219546e-01
  3.7361479e-01
 -1.0862089e-02
 -1.0505606e+00
 -5.0066930e-01
 -9.3147039e-01
 -7.7503395e-01
 -1.0154574e-01
 -1.1974335e-01
  8.3643138e-01
  2.4385867e+00
 -3.0732107e+00
  3.1768107e-01
  6.6068836e-02
 -9.8567289e-01
  9.2545909e-01
 -3.5141361e+00
 -8.5621560e-01
 -6.3323027e-01
 -4.0806735e-01
  5.8757609e-01
 -8.7934725e-02
  3.4220390e+00
 -1.2472966e+00
 -5.0383377e-01
  9.0152264e-01
  1.7694523e+00
  2.7598743e+00
  3.1341207e-03
  7.9665017e-01
  3.6572501e-02
  9.4713606e-02
  1.7367715e+00
 -1.7639682e+00
  7.9712264e-02
 -2.4880394e-01
 -2.3331647e+00
 -7.3047930e-01
  6.5924478e-01
  1.2011780e+00
  4.2042021e-02
  1.7396710e+00
 -5.2381498e-01
  2.2004716e+00
  1.0263042e+00
 -4.2904302e-01
  3.5099599e-01
 -2.8396389e-01
 -9.8593265e-02
  3.5249546e-01
 -3.1651847e+00
 -1.2227863e-01
 -1.1256027e-02
 -1.3814546e+00
 -6.2636596e-01
 -9.3428772e-03
  9.8068553e-01
  1.7013893e+00
  1.5034124e-02
  3.4746459e-01
 -4.8301500e-01
 -3.5229149e-01
  2.5852585e-01
 -1.0657520e-01
  2.5624700e-02
 -7.3620766e-02
  1.9872557e-01
 -3.1173795e-01
 -1.2035336e-01
 -3.9843479e-01
  7.3920891e-02
 -9.7423851e-01
 -2.6059023e-01
  3.1288534e-01
 -8.4399208e-02
  1.2482625e-01
 -6.3773379e-02
  2.7123371e-01
 -1.1796443e+00
  1.4440161e-02
 -1.3926442e-01
  2.4622066e-01
 -3.6832836e-02
 -1.8244329e-03
  7.6607816e-02
 -5.5863726e-01
 -6.3963924e-03
 -1.3320751e-01
 -1.6541786e-02
  6.2608218e-01
  5.6216878e-01
 -4.8553016e-02
  1.3933457e-01
  6.8710446e-02
  4.2087185e-01
  1.8823220e-01
  1.9138472e-01
  2.3639658e-01
  1.5347609e-01
 -2.0956948e-01
  2.5680890e-02
 -3.3880436e+00
  1.6891351e-01
  2.0064907e-01
 -8.3941466e-01
 -3.1821340e-01
 -1.6693993e-01
 -9.2214286e-02
 -3.0936542e+00
 -1.8398829e+00
  1.9050297e-01
 -1.9460846e-02
  1.3576990e-01
  3.0683830e+00
 -7.8687005e-02
 -1.6368590e-01
  6.1970089e-02
 -3.9049743e-03
  7.8082215e-03
  5.4397655e-01
 -2.8941315e-02
  1.8305846e-01
 -6.9258466e-02
  7.9683475e-02
  5.2671069e-01
 -1.5361327e-01
  1.0647528e-02
  3.3075038e-01
 -3.9497149e-01
  5.9686172e-01
  1.6348519e+00
  1.7773040e-01
 -1.7060907e-01
  4.7968248e-01
  5.3823936e-01
  1.8083380e-01
 -1.0324105e+00
 -1.5853051e+00
 -2.2801657e+00
 -4.0596390e-01
 -5.5624533e+00
 -4.6781139e+00
 -3.4849396e-01
  1.1400399e+00
 -5.1153362e-01
 -1.5094658e+00
  1.4480008e+00
  1.5060440e-01
  7.3717034e-01
 -6.8030977e-01
 -2.4296835e-02
  1.0669965e+00
  1.7802908e-01
  1.1280306e-02
  5.6288165e-01
 -8.4564313e-02
  1.4899164e-01
 -1.3808079e-01
  1.9351967e-02
 -1.4390278e-02
  2.7909005e-01
  6.1568516e-01
 -4.6520516e-02
  6.1971402e-01
  8.8147521e-02
 -9.3076158e-01
 -8.0366594e-01
 -6.3542086e-01
 -3.0082107e+00
  5.2130932e-01
 -2.6675513e-01
  8.1089616e-02
 -6.2540090e-01
  2.0555559e-01
 -3.7557054e-02
 -1.6256534e+00
 -7.9568841e-02
 -1.4518821e+00
 -8.1128165e-02
  3.3378208e-01
 -7.7472287e-01
  3.9879495e-01
 -9.7909095e-03
  1.8590666e-02
  2.9366581e+00
 -2.2392204e-01
  2.0771752e-01
  4.2094648e-01
  3.1582344e-02
 -1.4014056e-01
  1.5584511e-01
  1.4463103e-01
  4.1632554e-01
  1.4735283e-01
 -9.8762393e-01
 -1.1575440e-01
  2.4845069e-02
  6.8281926e-02
  4.0086991e-01
 -1.5230173e-01
 -3.5227016e-02
  9.1500822e-03
  1.6542388e-02
 -6.6117704e-02
  1.3894503e-01
  2.4778461e-01
 -1.2852587e+00
  7.0275804e-03
  1.1413893e+00
  6.8388782e-02
 -2.4969492e-03
 -8.3497830e-02
  3.1018364e-01
 -7.4818617e-01
  9.3010157e-01
 -1.6359808e-01
 -8.8440813e-02
  9.6722800e-01
  1.0346370e-01
  1.3173938e+00
  1.0098517e+00
  9.2418414e-01
 -8.9756185e-01
 -1.1254662e+00
 -3.6336058e-01
 -1.9780830e-02
 -1.3908559e+00
  1.4139284e+00
 -1.7055248e+00
  1.4573935e+00
 -3.0419140e+00
  1.5919560e-01
 -1.9058117e+00
  8.3102655e-01
  5.6172311e-01
 -2.8966259e-02
  8.1556827e-01
  2.5704646e-01
  6.9214684e-01
 -2.6486197e-01
  2.2307167e+00
  1.3416414e+00
  2.1719995e-01
  1.3844172e+00
 -4.8573207e-02
 -3.6221713e-01
  1.9098431e+00
 -5.1488094e+00
 -1.8062798e+00
  1.9641528e-01
 -1.6156529e-01
 -9.8662376e-01
  2.3768289e-01
 -3.0748783e-02
 -1.4311996e-01
  3.2991374e-01
  5.1108354e-01
 -4.8040926e-02
  1.1166811e+00
  7.5059348e-01
  1.9274896e+00
  9.3704772e-01
 -1.6984369e+00
  2.6653202e+00
 -7.4062616e-01
  1.0174875e+00
  1.3939486e+00
  1.4907911e-02
  4.2805579e-02
  9.3707494e-02
  1.8275013e+00
 -1.0414891e-01
 -2.0636854e-01
  9.4201583e-01
  1.0370239e-01
 -1.3606106e+00
 -1.0495192e+00
  2.2276250e-01
  1.5379733e-01
  2.7373990e-01
 -7.3884064e-01
 -3.5189390e-01
  5.4647458e-01
  4.0872088e-03
  2.9291445e-01
  2.6296809e-01
  5.5425680e-01
 -8.0645829e-04
 -2.0000260e+00
 -1.6302977e+00
 -3.5613227e+00
  1.5288137e-01
  2.0701995e+00
 -9.7029042e-01
 -3.9174592e-01
  6.7407948e-01
 -2.2560607e-01
  8.1484717e-01
  8.9114958e-01
 -6.7846775e-02
 -6.1273068e-01
  7.5193882e-02
  2.9783443e-02
  4.1749948e-01
  6.4229947e-01
 -1.3381157e+00
 -8.4894991e-01
  1.6931675e-01
  2.4541891e+00
 -2.0912068e-01
  1.8393409e-01
  6.9960588e-01
 -9.5215899e-01
  6.3733256e-01
 -2.6979384e-01
  2.6714063e+00
  1.4241924e+00
 -2.2018516e+00
 -2.2249405e-01
 -1.0053111e+00
  2.1777050e+00
 -3.0912998e+00
  1.1808448e+00
  1.9108254e-01
 -3.0001205e-01
  3.9956793e-01
 -2.4654636e-01
 -2.6965702e+00
 -9.9874234e-01
  7.7835357e-01
  1.7409418e+00
 -1.8245757e-01
 -1.4473515e+00
 -2.3707524e-01
  2.3238561e+00
  1.9798504e+00
 -3.7584521e-02
 -1.6225542e+00
 -7.1726598e-02
 -1.9310293e-01
  9.0177619e-01
  6.6615057e-01
 -7.7225693e-02
 -7.9781604e-01
 -6.6824156e-01
 -8.5908729e-01
 -9.7960055e-02
  1.7448239e+00
 -2.0350966e+00
  1.7526964e+00
 -7.1912867e-01
  5.0705269e-02
 -4.6687559e-04
 -3.4029946e-01
  9.7890443e-01
  8.9567453e-01
 -8.9615118e-03
 -8.4394181e-01
  1.3714443e-01
  9.0838575e-01
  1.5361400e-01
 -2.6117989e-01
 -6.9410324e-02
  6.9240190e-02
 -4.6211720e-02
 -1.2865178e-01
 -1.3177851e-01
 -2.6124921e-01
 -2.0533254e-02
 -8.6604506e-02
 -2.0581673e-01
 -1.0693018e-01
  1.6771848e+00
 -1.1561710e+00
  2.1704875e-02
  1.2370435e+00
  1.4010502e-01
 -1.6770744e-01
 -3.9727088e-02
  3.8740093e-01
 -5.2421087e-01
 -4.6607357e-02
  6.2240660e-01
 -9.7834109e-04
  4.4017434e-02
  1.1173810e+00
 -6.3284260e-01
 -5.6826162e-01
  3.7106164e-02
  7.8658514e-02
 -9.5043592e-03
 -1.0253329e+00
 -1.6112554e-01
  8.1370717e-01
 -1.7876938e-02
  2.3961034e-01
 -3.8585046e-01
  2.2822240e-01
  1.1890104e-01
  4.2461056e-02
 -2.5362086e-01
 -1.6057128e-01
 -7.5985648e-02
 -6.1308050e-01
  6.6639763e-01
  1.7673831e-01
  6.4608887e-02
 -1.0544469e-01
  1.7174267e+00
  8.6043537e-02
 -8.0615211e-01
  3.2733448e-02
 -3.7449417e-01
 -4.7417858e-01
  2.7744520e-01
 -1.6113286e-01
 -3.4000963e-02
 -2.8861024e+00
  1.9376293e-01
 -8.1706524e-02
 -9.1036387e-02
 -6.2543184e-01
  5.8619976e-01
  9.8830216e-02
 -3.9361749e-02
 -6.1363286e-01
 -1.0430433e+00
 -1.1901419e+00
  1.1062213e+00
 -2.3809237e+00
 -1.3936208e+00
 -1.7333472e+00
  4.2855603e-01
 -1.6396149e-01
  1.6881831e+00
 -3.2267520e-01
 -3.7071197e+00
 -1.6282527e-01
  6.5850103e-01
  1.2321305e+00
 -1.7987767e+00
 -1.1032488e+00
  2.0771310e-01
 -1.3917848e+00
  2.3881492e-01
 -3.5769254e-01
 -1.3686083e-01
  3.9186200e-01
  4.5092383e-01
 -6.1640792e-02
  7.6155299e-01
 -6.6190147e-01
 -2.1000159e-01
 -1.6058501e-02
 -1.7383789e-01
 -4.7458043e+00
 -4.4612378e-01
 -8.8186109e-01
 -1.2607478e-02
  1.6162620e-01
  2.1643014e-01
  1.1584311e-01
 -2.8519481e-01
 -4.0372312e-02
  2.0456582e-01
  1.9076623e+00
  1.3135621e-01
  1.7765847e-01
 -1.1554260e+00
 -1.0083880e-01
  9.0024602e-01
  2.6201704e+00
 -1.1200974e+00
 -1.4929196e-01
  3.5524152e-02
  2.4749229e-02
  2.0765793e-02
 -1.1652658e+00
  2.0218095e-01
  5.3470004e-02
  6.8371519e-02
  1.2772089e-01
 -5.3603414e-02
  1.7050790e+00
 -2.0393429e-02
  2.7282071e-01
 -1.3523039e-01
  2.2876138e-02
  3.4902569e-02
 -1.6018870e+00
 -8.3085075e-02
 -1.9931418e-01
 -6.1435896e-01
 -8.3864756e-02
  7.8520782e-02
 -9.8283157e-02
 -1.5391199e-01
  5.6260084e-03
  1.1816359e+00
  8.7619472e-01
  3.6415231e+00
  4.4032198e-01
  5.0902492e-01
  1.6226118e+00
  1.3466251e-01
 -1.4414962e-02
 -2.9864741e-02
  3.6839940e-02
  6.2040646e-02
  6.5111600e-02
  3.1885806e-01
 -7.4692473e-02
 -9.9865440e-03
  2.1245048e+00
 -3.4098443e-01
  2.7817741e-01
  1.7615502e+00
  7.3462248e-01
 -5.2459054e-02
 -3.0246210e-01
 -8.1515753e-01
 -1.0264624e+00
 -1.1719099e-01
  6.1864871e-01
 -1.5086309e+00
  1.9153023e+00
  9.2726678e-01
  1.2984261e-01
 -3.3833544e+00
 -9.3733644e-01
 -1.3953724e-02
 -1.6572978e-02
  2.3893015e+00
 -7.6053107e-01
  7.5408673e-01
  3.0998603e-01
  1.1418431e+00
 -1.8096548e+00
 -1.0970509e-01
  2.4323598e-01
 -1.3390788e+00
  2.4982588e+00
 -1.1749207e-01
 -8.8808775e-01
  4.6264234e-01
 -1.8122994e+00
  2.5284207e-01
  1.2478508e-01
 -1.5777461e-01
  2.7798206e-01
 -1.0252862e-01
 -3.0667293e-01
 -5.6506997e-01
  1.0412003e+00
 -8.1748122e-01
 -7.6763427e-01
 -8.9028776e-01
  2.3967054e-01
 -9.1226053e-01
  3.2759685e-02
  1.2401474e+00
  3.7715217e-01
 -1.4518534e+00
  1.3393482e+00
 -2.5355542e-01
  1.3461407e+00
 -1.2163733e+00
  1.1178458e+00
  1.1221792e-01
  1.9157067e-01
 -5.7821369e-01
 -1.1132586e+00
 -2.5152776e-01
  2.9276240e-01
  3.9164555e-01
  4.9161695e-02
 -8.3937861e-02
 -1.9224728e-02
  8.8852331e-02
 -1.3779555e-01
  6.0118739e-02
  1.7766908e-01
  1.6420212e+00
 -9.2124209e-02
 -1.7792895e-02
 -5.3187506e-03
  1.6207829e-02
 -4.9347404e-02
  5.3673053e-01
  2.4689165e-01
  1.5284294e-01
 -3.8361594e-02
  4.3673315e-03
  3.6642320e-02
  2.4052006e-03
 -4.2520136e-02
  8.7491024e-01
  8.7094404e-02
  7.3623270e-02
 -5.6770742e-02
  2.2858059e-02
  3.7030321e-02
  3.0963061e-02
 -1.3050622e-01
  1.4229113e-02
  3.7173002e+00
  1.6587342e+00
 -5.3505404e-03
  7.7679294e-01
 -3.4936896e-01
 -2.2407781e-01
  6.1718017e-01
 -1.2095518e+00
 -5.8436152e-02
 -7.4354455e-02
  1.5481246e-01
  4.2556778e-01
  1.5211773e+00
 -3.7783046e+00
 -4.5811871e-01
  3.4711909e-01
 -4.0611021e-02
  6.4642233e-01
  1.5338833e+00
  1.5795946e-03
 -1.8621197e+00
  5.2613479e-01
  3.8442951e-01
  4.7374438e-02
  8.4915149e-01
 -2.8674660e-02
 -6.5350898e-02
  1.3487630e-01
 -1.3109689e+00
  1.4104029e-03
 -3.5944831e-02
 -2.3298712e+00
 -1.2349249e+00
 -1.2803043e-01
 -2.4828634e-01
 -1.7391866e-01
 -2.9427327e-02
 -9.5439386e-01
  9.3941456e-01
  2.2108591e-01
 -5.5383348e-01
  1.8356167e-01
 -1.5116237e-01
  1.3940609e+00
  2.1295266e+00
  1.5098007e+00
  2.7202200e-02
  7.0160791e-02
  4.2017612e+00
 -2.0270133e+00
 -5.7801729e-01
  3.4232169e-01
  1.1903258e-01
  1.0191239e-01
  2.1966448e-02
 -1.0735299e-01
  3.0021897e-02
  8.8143460e-02
  5.3257525e-01
  6.0309500e-01
 -9.4308811e-01
  7.6840597e-01
 -2.4756720e-02
 -1.5799955e-01
  2.1233251e+00
  1.2446231e-01
 -5.1769674e-01
 -1.5706733e-01
  8.3690463e-03
  1.2252954e-01
 -2.6897445e-01
 -4.2556995e-01
  1.8958291e-01
 -5.8731091e-01
  9.1889612e-02
 -4.0789393e-01
  1.4232635e+00
 -2.1610110e+00
  2.0196785e-01
  8.4211475e-01
 -2.8549454e+00
  2.0806608e-01
  1.5575879e+00
  5.3854890e-02
  1.0323131e+00
 -2.0630771e-01
  1.4477336e-03
 -2.3985893e-02
  9.7629035e-01
  7.6865482e-01
 -1.5965723e-02
 -3.4914023e-01
  4.5028570e-01
 -3.1953361e+00
 -1.8934494e+00
  8.4201282e-01
  6.2393069e-01
 -1.2029631e+00
  1.6876905e+00
 -1.5093237e-01
  1.2865608e+00
  5.2019674e-03
 -4.7211304e-01
 -7.6644883e-02
 -1.2218465e-01
  1.7569287e+00
 -1.1019717e+00
 -3.2490737e+00
  2.3391254e-02
 -2.5030804e-01
 -1.9203702e-01
 -1.5087384e+00
 -8.1985366e-01
 -1.0057683e+00
 -8.4873933e-01
 -6.5243477e-03
 -1.4530152e-01
 -3.7312168e-01
  8.6453386e-02
 -8.4259182e-02
 -1.8921677e+00
 -6.0506147e-01
 -4.7693159e-02
 -1.0004669e-01
 -1.9144598e-02
 -2.7868330e-01
  6.3390620e-02
 -6.5516181e-02
  4.8942780e-01
  1.2321090e+00
  1.4312239e-01
 -1.6596849e-01
  4.5281291e-01
 -5.3810447e-01
  7.2368555e-02
  4.0849122e-01
 -8.3638117e-02
  9.5811796e-01
 -3.5411730e-01
 -1.1260718e-01
 -1.2204700e-01
 -2.6087293e-01
 -4.4391129e-02
  7.8573167e-02
 -9.1709957e-02
  3.2268951e-03
  2.5601229e-01
  3.5010796e-02
  4.7772914e-02
 -6.6108912e-02
  2.2852586e-01
  4.8351455e-03
  6.8188347e-02
  4.7928146e-01
  1.3074404e-01
 -9.2550218e-02
 -1.1630643e-01
  6.5576367e-02
  1.3537845e-02
  4.6186589e-02
  3.0290371e-02
  6.7234212e-03
  1.3454812e-02
  1.9974750e-02
 -2.1769835e-01
  2.8040068e+00
 -4.4021927e-02
 -6.1414635e-01
  1.2418626e-01
 -2.6813251e-01
 -2.8144985e-01
 -6.4113304e-02
  1.3379706e+00
 -1.3343621e-02
  4.0138733e-02
 -1.1595871e-01
 -2.9573649e-02
  8.5698944e-01
 -6.0542643e-01
 -6.4925176e-01
  1.0308187e+00
 -1.4754403e+00
 -1.2482445e+00
  1.0096287e+00
 -5.8639657e-01
  1.2321044e+00
  2.5766587e-01
 -6.1980069e-01
  2.2432506e-01
  1.0728853e-02
 -6.7263597e-01
  7.5496936e-01
 -1.3947375e+00
  2.6914556e+00
 -2.3576665e-01
 -1.1504195e+00
 -7.6320475e-01
 -2.5759462e-01
  6.3924772e-01
 -1.3837115e-01
 -3.2632273e-02
 -3.2941611e+00
 -1.4618369e+00
 -1.7157692e-01
 -2.5844899e-01
 -1.7408361e-01
 -2.1060653e+00
  1.0529071e+00
 -1.9881080e-01
  2.0105925e-01
 -4.3292207e-01
  9.4563985e-01
 -1.0557165e+00
 -7.2397685e-01
  7.7199496e-02
 -7.2115195e-01
 -8.5783613e-01
 -7.8311408e-01
  3.1309786e-01
 -4.2228216e-01
  1.0041647e+00
  1.9347246e+00
  3.5020390e-01
 -7.2741461e-01
  1.1772206e+00
 -4.7353953e-02
 -1.7542973e+00
  9.6399325e-01
  3.0755189e-01
  8.1268191e-02
 -8.0745056e-02
 -4.1930736e-03
  3.9278131e-02
  3.0728031e-02
 -3.4931757e-02
 -4.3404502e-01
  1.1834396e+00
  8.7232566e-01
  1.7417697e+00
  8.1572652e-01
  4.8018917e-01
  1.5758686e+00
 -1.2980207e+00
  2.0652764e+00
  1.1593410e+00
  1.4183515e-01
 -4.2323735e-01
  2.9447765e+00
  1.3357274e-01
  2.2983944e+00
  2.8660912e-02
 -1.6064909e+00
  5.4943085e-01
 -7.5158790e-02
  2.3463049e+00
  9.8890460e-01
  4.9284407e-01
 -5.1883894e-01
  5.5511880e-01
  8.1277877e-02
  1.6558112e+00
 -1.2382547e+00
  5.8234680e-01
  3.5770442e-02
  5.8963448e-01
  2.0267074e+00
 -5.6232549e-03
 -4.6111592e-03
 -4.4246277e-01
 -6.5834358e-02
  7.8365469e-01
  8.5967910e-01
  8.0914444e-01
 -1.3795661e+00
  9.4581681e-01
 -2.2814817e+00
 -8.8611748e-03
 -1.1870951e-01
  7.8099626e-01
  1.2001252e+00
  9.9995601e-01
  1.8446623e-01
  5.7574606e-01
  2.1780837e+00
  3.8390315e-01
  3.9310243e-02
  7.1986341e-01
  1.6366953e+00
  5.0659120e-01
 -1.4369097e+00
 -8.0391067e-01
 -3.3243579e-01
  1.2169386e+00
  2.7235487e-01
 -2.9862151e-01
  2.5014743e-02
 -1.6156428e-01
 -1.7482074e-01
  3.0454189e-01
  3.0573301e-02
  2.6012583e-02
  4.1405588e-01
 -4.2914826e-02
 -1.8749222e-01
  5.7626136e-02
 -3.9344992e-02
 -1.2639627e-03
 -7.2582483e-02
  6.5150730e-02
 -7.6448633e-03
 -1.0642416e-01
 -6.0406355e-03
 -1.8659692e-02
 -1.1679506e-01
 -3.6442325e-02
  8.6906068e-02
 -8.9503598e-01
 -6.6796631e-02
 -1.7848057e-01
  2.4487837e-01
 -3.7856262e-02
  5.7896036e-03
  2.4365323e+00
 -8.8599020e-01
  1.3569783e+00
  9.0967588e-02
 -9.2260009e-01
  7.7977084e-02
 -9.1455668e-01
  1.6723932e-01
 -1.1902584e+00
 -1.4447024e+00
  1.3585711e+00
  7.8512001e-01
 -9.7729039e-01
  1.2518014e-01
 -9.1160053e-01
 -7.2625256e-01
  5.6838858e-01
  8.8629492e-02
 -5.7191467e-01
  1.0393745e+00
 -7.0512128e-01
  1.5318890e+00
  3.0545330e-01
  2.0667820e+00
 -1.6394092e+00
 -1.1218126e-01
 -3.1478196e-01
 -1.8979648e+00
  1.0157300e+00
  9.0915495e-01
  3.0669039e-01
  1.0285170e+00
  4.4514173e-01
  3.5783406e-02
 -7.8379422e-02
  1.4299664e+00
  3.2650597e-02
 -1.6469116e+00
 -1.1901469e-01
 -3.5807997e-02
  1.4090955e+00
  1.0806933e-01
  8.0229245e-02
  5.8633048e-04
 -3.2039635e-02
 -3.0907894e-02
 -3.7562512e-02
  9.4424617e-03
 -1.6096811e-01
 -7.0817137e-01
 -4.1280132e-02
  2.0288365e-02
 -1.5328051e-02
 -2.5931753e-03
  3.0050138e-02
 -3.9582692e-02
 -2.2662906e-02
 -1.2431891e-02
 -9.3900546e-02
 -1.1327104e-02
 -2.9758155e-02
  5.1084876e-01
 -5.1329195e-02
  1.8079792e-01
  7.1249111e-03
 -4.3442808e-02
 -2.6330304e+00
  2.4709305e-02
 -1.7705424e+00
  6.9315267e-01
 -7.3364699e-01
  1.6629117e-03
  8.8166922e-02
 -2.3843154e-02
 -2.1099824e-01
  1.2832223e-01
 -1.2945434e-01
  3.8076768e+00
 -3.3762848e-01
  2.7597349e-02
 -7.4881762e-01
 -2.5263694e-01
  5.3477626e-02
 -7.4176401e-01
 -2.2426214e+00
 -1.3526707e+00
  6.0821383e-04
  1.4139153e-01
  2.1364896e-02
  1.6953185e+00
  9.5231630e-02
 -1.5336270e-02
  1.3495885e-02
  1.9751377e-01
  8.3649206e-01
 -4.5340933e-02
 -1.2973938e+00
  3.4639425e+00
 -1.1831992e+00
  1.3663414e+00
  3.0536284e+00
 -1.2908119e-01
  2.2744054e-01
 -1.1254037e-01
  1.3371097e-01
 -2.2083056e+00
  2.5894681e-02
 -2.9420266e-02
 -9.2470938e-01
  7.8359492e-02
 -1.1208712e+00
  1.3532429e+00
 -1.3331941e+00
 -5.6949872e-01
  1.9144310e+00
 -1.8018682e+00
  1.9535777e-01
  4.3591863e-01
 -2.5314617e+00
  2.0419486e-01
 -3.0557460e-01
 -6.2101569e-02
  3.0763182e-01
 -3.6281355e-02
 -2.8157151e+00
 -2.3974383e-02
 -3.0446860e-01
 -1.0176661e+00
 -4.8254061e-01
  9.0368815e-02
 -4.0841761e-01
 -1.5785439e-01
 -4.0101206e-01
  1.2603399e+00
 -7.8487051e-01
  1.2215651e-01
 -8.2335006e-03
 -1.0228258e-02
 -9.1667257e-02
 -2.3601770e-02
  3.8745707e-01
 -9.3184823e-01
 -3.2043427e-01
 -9.2124540e-01
  4.5457307e-02
 -6.8278843e-01
  3.1979910e-01
 -5.0126755e-01
 -1.0193405e-02
  5.4715353e-01
  4.7647551e-02
  5.5424359e-02
  5.5845182e-02
  7.4420596e-04
 -4.9836877e-01
  6.3539349e-02
 -5.0337411e-02
 -1.4239286e+00
  1.1603352e-02
 -5.6775715e-03
  2.7052565e-02
 -4.4579483e-03
  8.5236567e-01
  1.0742889e-01
  7.9054653e-04
  3.0049870e-03
  3.1405758e-02
  3.7706712e-01
  5.8564715e-02
 -5.0302044e-02
 -6.3659470e-03
  1.5862139e-02
 -9.2273615e-03
  2.2064045e-01
  1.0355671e-01
  2.7059218e-01
  8.7513104e-02
  6.2747523e-02
  5.7632744e-01
  1.4369668e-02
  1.1622242e-01
 -9.8606609e-02
  1.1391916e+00
  8.2938635e-01
  4.6544816e-02
  2.6501622e-02
  2.3851079e-01
 -1.0053197e-01
  1.1232288e+00
 -1.5095617e+00
 -4.5661765e-01
  3.1746113e-01
 -4.4263342e-01
 -2.6277049e-02
  5.4410267e-01
 -9.0346999e-02
  7.2089553e-01
 -3.6036739e-01
 -3.9861120e-02
  4.9132389e-01
 -5.4821360e-01
  3.8490036e-01
 -6.2778008e-01
  8.8427949e-01
  1.6863811e-01
 -2.4119587e-01
  1.0870196e+00
  3.3290777e-03
 -6.1249118e-02
  4.2079195e-01
  3.4247883e-02
  6.1436440e-04
  8.1438535e-01
 -1.4801401e-01
 -1.0624968e-02
  1.2929182e-01
 -4.8777260e-02
  1.1032460e+00
  1.3050079e+00
  1.7991147e+00
  3.3968249e-01
  1.0486729e-01
  1.4619089e+00
  2.3053601e-02
  2.2533415e-01
  2.4607215e+00
 -4.8747165e-03
 -6.4261001e-01
 -4.1269124e-02
 -5.3477877e-01
  1.1011061e-01
  3.1027145e+00
  3.5001776e-01
  6.7326480e-01
  8.3908200e-01
  1.3530831e+00
  1.5874169e+00
 -2.4082329e+00
  8.5942364e-01
  7.2138464e-01
  1.4400969e+00
  8.9399733e-02
  6.7980558e-01
  5.3739503e-02
  6.1682202e-02
 -1.4003652e+00
  2.4670532e+00
  1.6253993e-01
  9.9597022e-02
  7.4967164e-01
  1.0533798e+00
 -5.7443649e-01
  1.9226998e-02
 -1.1736696e-01
 -1.2046551e-01
 -2.8521091e-01
  1.6901296e-02
 -6.1538653e-03
 -2.5858195e+00
 -1.3545522e-01
 -5.1968163e-01
  1.3892457e+00
 -3.1298093e-02
  8.0843955e-01
 -1.8457162e+00
  6.8063244e-02
 -2.2462033e-01
 -6.2710151e-02
 -4.1958079e-02
 -2.6184961e-01
  3.4942848e-03
  1.1486506e-01
 -1.0235502e-01
 -1.1880262e+00
  2.3278186e-02
 -9.4040739e-04
 -1.3569117e+00
 -8.3399940e-01
  6.8067628e-01
  1.4205934e+00
 -2.3780434e-01
 -1.3395146e-01
  1.3837935e-01
  4.0325470e-02
  1.5297818e-02
  3.4528899e-01
  4.0770505e-02
 -1.2463938e+00
 -8.7389670e-02
 -3.1250447e-02
  8.7325186e-02
  1.0712695e+00
 -1.6319673e-01
  9.3323074e-02
 -3.3532128e-01
  1.0166543e+00
  7.5541359e-01
  6.4731844e-02
 -1.1279682e-01
 -1.3435206e-01
 -3.9036192e-03
  5.6602966e-02
 -1.3982283e+00
 -4.7182381e-02
  7.3588952e-02
  1.0852958e-02
  3.3014587e-01
  6.5565586e-02
 -2.2129095e+00
  4.5767043e-02
  4.3350611e-02
  1.0420042e+00
 -2.3086445e+00
 -1.8079227e-02
  5.2712542e-01
  7.6802236e-01
  1.0810358e-01
 -2.0972528e-01
  6.3297436e-02
  1.6367368e-01
 -7.3663138e-02
 -3.2887408e-01
 -7.4694932e-02
  7.4761510e-02
 -8.3497643e-02
  1.4171495e-01
 -6.3507915e-02
  2.1169986e-01
 -1.0033979e-01
 -4.0876288e-02
 -1.4069324e+00
 -9.0974027e-01
  4.7130257e-02
  2.4464405e-01
 -2.2086923e-01
  2.1821620e-02
 -3.2724824e-02
 -2.2750432e+00
  2.7126607e-01
 -1.6966833e-02
 -2.1123134e-02
 -8.1028622e-01
 -3.0743198e-03
 -1.5211233e+00
 -4.6432427e-01
  5.0380062e-02
 -7.2970134e-01
 -4.7075637e-02
  6.2516574e-03
 -4.6816245e-02
  4.0170863e-01
 -1.1765002e-01
  2.0426719e+00
 -5.0766196e-02
  4.6361417e-02
 -9.2687057e-03
  1.9385047e-02
 -6.7354925e-02
 -7.8413564e-01
 -1.4647254e-01
 -6.2418453e-02
  1.6964568e+00
  2.8053388e-02
 -1.8471874e-01
 -4.6177320e-02
 -2.3080610e-01
  2.5322235e+00
 -1.8948232e-01
 -1.2526200e+00
 -8.9241967e-02
  8.2097316e-01
 -2.7661806e-01
 -2.7336201e-01
  1.1063968e-01
  1.3344740e+00
 -1.7905637e+00
 -3.0492546e-02
  4.5303084e-02
  1.0048656e+00
  6.7283392e-02
  2.2223864e-01
 -1.2565333e+00
 -2.7655980e-01
 -6.9018072e-03
  1.4589152e-02
  2.2284873e+00
 -5.5406354e-02
 -7.2883718e-02
 -9.8692738e-02
 -4.1370937e-01
 -2.0204805e-01
  1.0726345e-01
  3.2916166e-02
  1.6927029e+00
 -3.8260978e-02
 -2.1051954e-02
 -1.3508292e+00
 -1.3113686e-01
  3.4087937e-02
 -1.7448483e-01
 -2.0279029e-01
  2.1209517e-01
 -1.8522775e-01
 -3.1789366e-02
 -2.2455035e-02
 -5.4664218e-01
  2.1203417e-01
 -6.7062956e-01
  1.2646030e-01
  5.9088685e-02
 -3.7422340e-02
  8.3183688e-01
  1.5487387e-02
  2.2140031e-01
 -4.6810463e-01
 -1.6086829e+00
  1.6877756e+00
 -6.0772099e-02
  1.2286194e-01
  5.9310919e-01
 -3.4866154e-02
  7.6508981e-01
 -1.7971588e+00
  7.7257797e-02
 -4.3409511e-02
 -8.9601293e-02
 -6.6566370e-02
  1.2927110e+00
  1.1502039e-01
 -4.9885597e-02
  1.0213078e-01
 -1.1071911e-01
  7.0750602e-02
 -4.7221560e-02
 -4.3215688e-02
  1.2919767e-01
 -1.9842455e-01
  1.7521573e-02
  7.7155076e-02
 -1.7239408e-01
  4.6708086e-03
  6.8507299e-02
  1.4243917e-01
 -2.1288340e-01
  1.1344743e-01
  1.6702774e-01
 -5.8644183e-02
 -3.3622973e-02
  3.1515859e-02
 -7.6233006e-01
 -8.9210123e-02
  6.5147996e-02
  5.4501589e-02
 -1.7473249e-01
 -1.5200214e-01
 -1.4142826e-01
 -1.6951790e-01
 -3.2704413e-01
 -2.4753485e+00
 -3.8629097e-01
 -1.5183042e+00
 -2.3371814e-01
 -7.8476906e-02
 -2.9626948e-01
 -2.9166824e-01
  3.6247328e-01
 -9.4219333e-01
 -2.8138804e-01
 -1.2677306e+00
 -3.6263764e-02
  1.1924559e+00
 -3.7811163e-01
 -1.9016641e+00
 -2.2014296e+00
  2.0709956e+00
  1.4852592e-01
  3.0040729e+00
 -3.5343352e-01
 -3.9000745e+00
  2.2445543e+00
  1.6420107e-01
  3.2120487e-01
 -2.6966822e-01
 -1.2458631e-01
 -1.1281829e-02
 -1.2892671e-01
  6.6374230e-01
  1.0922763e-01
 -1.1153353e-02
 -6.0949985e-02
  9.1914888e-03
 -2.7816106e-02
  9.6975323e-03
  1.0174593e-01
 -4.1761804e-02
  8.9658409e-02
 -3.8335457e-02
  2.3061230e+00
 -2.8174988e-03
 -9.4324641e-02
 -1.1203566e+00
 -6.8582666e-01
  3.8664147e-02
  9.0433948e-02
 -1.2130431e-02
 -3.8716334e-01
 -2.0907063e-03
 -1.9145536e-01
  6.3830450e-02
 -2.9657476e-02
 -2.2292567e-02
 -2.3947042e-01
 -1.4333401e-02
  1.5423702e-02
 -2.1004785e-02
 -1.9956596e-01
 -6.6389197e-01
  6.7444041e-02
 -9.0490235e-03
 -3.5888560e-02
  4.6983624e-01
 -9.7337458e-03
  1.9636124e-01
 -2.8437132e-02
  2.1849876e-02
  6.6129744e-01
 -2.1093883e-02
 -1.0898589e-01
 -4.5634851e-02
 -2.0165456e-02
  2.1158162e-01
 -2.0819061e-02
  5.2558851e-01
 -6.5312490e-02
 -8.1258431e-02
 -9.3625325e-01
  2.3253478e-01
  3.1588841e-02
  9.2603135e-01
  3.0841589e-01
 -1.5290546e-02
 -1.7347172e-02
  8.2202785e-02
  2.4178719e-02
  2.5802786e+00
 -1.2497503e-01
 -1.2436413e+00
  1.3220145e+00
 -9.8305506e-01
 -6.6557086e-01
 -3.0534077e-01
  1.9945312e+00
  4.0805668e-02
  8.6684120e-01
  7.6017356e-01
  7.1544427e-01
  6.3395536e-01
 -5.9645957e-01
 -1.2871273e+00
  4.8077500e-01
 -5.4413664e-01
 -2.4748597e-01
 -1.3161756e+00
 -6.5972921e-03
  9.4004577e-01
  1.9721146e+00
  4.5753425e-01
  7.9318798e-01
 -2.1030142e+00
  1.5090206e+00
  1.2467120e+00
 -2.7965683e-01
  1.8866305e+00
 -8.5962629e-01
 -8.7326026e-01
 -4.8434860e-01
  5.7940727e-01
  2.7215781e+00
  1.1853743e+00
 -8.0799770e-01
  2.1602254e+00
 -1.2647339e+00
  1.2332495e-01
  1.7578479e+00
 -1.2074031e+00
 -1.0863200e+00
 -1.8349574e+00
 -2.1030217e-01
  1.1057109e+00
  3.6602005e-04
  4.3300527e-01
  8.4961736e-01
  1.8395977e+00
  1.5105060e-02
  5.4712427e-01
 -1.7880363e+00
 -4.2178908e-01
 -8.8469118e-01
 -1.8475279e-01
 -4.7308093e-01
 -2.0194721e-01
  4.8030189e-01
  8.2608730e-01
 -1.2307464e+00
  2.2197524e-01
  1.0556872e-01
 -5.0088711e-02
  1.9486076e-01
  3.5166588e-02
  2.1803665e-01
 -1.1971676e-01
  1.0603710e-02
  6.9574565e-02
  2.0833435e+00
 -1.4898968e-01
  1.6126683e+00
  2.2997749e+00
  3.9027147e-02
 -2.8388513e-02
 -9.0908189e-04
 -2.3034493e-02
  1.4903463e-01
 -8.0969837e-03
 -1.2602817e+00
  2.9761594e-02
 -2.8203722e-02
 -1.4149715e-01
 -7.4146044e-01
  2.3487394e-01
 -1.2487336e-01
 -4.6088576e-02
 -1.4209756e-01
  4.3354756e-01
 -3.0918678e-03
  4.3122347e-02
  1.8474718e-03
 -3.9421801e-02
  2.2773434e-01
 -6.2873274e-02
 -2.6687263e-02
 -2.1799853e-01
 -3.4478271e-01
 -1.5752584e-01
  5.6782015e-02
 -8.8029891e-02
  2.4170871e-01
 -6.8630129e-02
 -4.5260830e+00
 -8.6696470e-01
  3.5831138e-02
 -1.2638751e-02
  1.0405365e-01
  1.1145099e-02
 -3.0362112e-02
  4.6869689e-01
 -2.1613373e-01
  3.1325197e-01
  2.9354118e-02
 -2.3681954e-01
 -9.8059326e-02
  2.5204971e-01
  1.1456433e-01
 -2.3330347e-01
 -1.1299605e+00
 -6.3939536e-01
 -2.9337850e-01
  1.1140028e-01
 -4.3268687e-01
 -2.2949498e+00
 -3.5403904e-01
 -4.6122393e-01
 -7.7383190e-01
 -1.0307989e+00
 -1.4404893e-01
 -1.5070775e+00
  9.9115036e-02
 -3.8647112e-01
 -5.9242821e-01
  3.1884521e-02
 -1.8706778e+00
  3.0336082e-01
  9.6735388e-01
 -2.3303845e+00
  4.1803160e-01
  3.1548667e-01
  1.1278590e-01
  2.2512223e-01
  1.1126512e+00
  1.9098939e-01
  4.7679833e-01
 -4.4965905e-01
  6.9737846e-01
 -1.1845489e+00
 -4.5592695e-02
 -5.3202707e-02
  5.2380228e-01
 -1.5269619e-01
 -2.9077956e-02
  2.2674770e+00
  4.0472298e+00
 -5.6076628e-01
 -3.8101026e-01
  9.3002647e-01
 -8.9082241e-02
 -5.4161911e+00
  4.6678834e-02
  1.0945093e-01
 -1.0946840e+00
  4.9814438e-03
  4.7049960e-01
 -5.7790840e-01
 -3.2109118e-01
 -1.4912697e-02
  1.2964719e-02
 -2.8784922e-03
  9.5445389e-01
 -1.3880032e-01
  5.9641039e-01
 -1.3238674e+00
  8.9073293e-02
  7.0098698e-01
  2.7678691e-02
  3.1019650e+00
 -2.7905452e-01
 -1.6248234e-02
  2.7739801e+00
  1.1479013e+00
 -1.5770327e-01
 -9.9720895e-02
 -1.5657998e+00
  3.2860309e-01
 -3.1531537e-01
 -1.1800136e-01
 -5.9322376e-02
  1.5274477e-01
 -1.5825097e-01
 -1.5381804e-01
  6.9787836e-01
 -9.5473832e-01
 -4.5668808e-01
 -6.5747008e-02
 -8.1489980e-02
  2.3985745e-01
  5.0403487e-02
 -4.3915473e-02
  5.7638782e-01
  2.5899023e-01
 -3.2239509e-01
  1.8265103e+00
  5.0503159e-01
  1.5283123e-01
 -7.3337271e-03
 -1.4767237e-01
 -2.7147837e-02
 -1.4211497e-01
  8.0950312e-02
 -3.2849678e-01
  2.7037355e-01
 -7.3606491e-01
 -8.7450653e-02
  1.5032079e+00
 -1.6540496e+00
  2.4045374e+00
  2.9178576e+00
 -5.0292369e-02
 -4.3879962e-04
 -3.9032531e-01
  4.0148866e-01
  8.7499517e-01
  3.6024380e-01
  2.7848908e-01
  6.7182542e-03
  9.9533439e-02
  4.2681727e-01
  7.9107517e-01
  6.9534287e-02
  3.8136460e-02
 -4.6397515e-02
 -1.6802751e-01
  3.1073481e-01
 -1.0591772e+00
 -5.8373129e-01
  2.9149378e-02
 -2.1787345e-02
 -4.8386208e-03
 -7.3545593e-01
 -1.1885281e+00
  2.8323004e-01
 -1.3115376e-01
 -1.6079992e-01
 -3.5133138e-01
 -1.8418163e+00
  5.3239334e-01
  4.0696980e-03
  4.5432202e-03
  4.0340763e-01
 -5.0169766e-01
  2.3176847e-01
  3.1169173e-01
  4.0663183e-02
  6.1977930e-02
 -6.0813189e-02
  7.4538454e-02
 -1.7313035e-02
  4.5926645e-02
 -7.2040753e-03
  1.9106723e+00
  3.9861348e-01
 -2.6464192e-02
  2.8886773e-02
  1.2961091e-01
 -5.6402199e-02
 -7.1800031e-02
 -5.2040633e-02
  1.7206924e-02
 -2.3177093e-01
  4.7222625e-02
  2.5416288e-01
  5.7595991e-02
 -1.2693632e-01
 -6.3089065e-02
  5.1202189e-02
  1.4661092e-01
  1.8997278e-02
  6.0861544e-03
  7.4647013e-03
 -6.7109764e-03
  2.5272241e-01
  7.6421940e-01
  6.4556167e-02
  2.3206854e-01
  7.5585209e-02
  4.9183879e-02
 -5.8145400e-02
  2.4043404e-02
  4.7763376e-03
  2.6633126e-01
  1.3835829e-01
 -3.8785142e-01
  2.7400604e-03
 -4.7772661e-02
 -5.9786286e-02
 -5.7095386e-02
 -9.0209311e-01
 -3.6310112e-01
 -3.0381918e-02
  7.7444278e-02
  5.1706403e-02
  3.3635974e-01
  2.1334390e-01
  1.1998235e-02
  4.5472890e-01
  1.9373180e-01
 -5.0227359e-02
  3.2400128e-02
 -9.8554812e-02
 -4.5840874e-02
 -4.5774471e-02
  1.8705370e-01
 -3.1700775e-01
  5.2421033e-02
 -1.0551802e-02
 -2.0059106e+00
  3.9838720e-02
  3.8931530e-02
  1.3552059e-01
  2.8509201e-02
 -8.7642096e-02
  4.0627298e-01
  1.7033601e-01
  3.0436140e-01
  3.2253433e-02
 -3.3297382e-02
 -1.1577889e+00
 -1.5508088e+00
 -1.0789933e-02
  2.0099257e-03
 -9.6110255e-01
  5.2703194e-02
 -3.9208490e-01
 -2.4815254e+00
  7.1419829e-01
  2.6021558e-01
 -4.3993630e-02
  6.6907585e-02
  1.0314782e-02
  2.5765368e-01
  1.2951617e-02
 -9.2394519e-01
 -4.9063882e-01
  2.0896196e+00
  3.3525237e-01
  1.0570178e+00
  5.4117370e-02
 -3.6894314e-03
 -6.2433884e-02
  9.5477355e-01
  5.0033420e-02
  8.5592747e-01
  4.3135691e-02
 -4.2211488e-03
  1.9771478e+00
  2.5381744e-02
 -1.0995629e-02
  9.8244222e-03
 -1.2935127e-01
  3.1165525e-02
 -8.1681155e-02
  3.4025609e-01
 -3.5523847e-01
  8.9850821e-02
  8.8904685e-01
 -4.3087408e-02
  7.7661902e-02
 -7.7209130e-02
 -3.3712365e-02
  1.8773352e+00
 -2.0338568e-01
  7.4542806e-02
 -9.9097574e-03
  1.4200454e-03
  1.0756403e+00
 -5.3404629e-01
  1.8119468e-01
 -1.3244970e-02
 -3.0495172e+00
  1.1704242e+00
 -5.0635552e-01
  2.2932039e-01
  3.5359228e-01
 -7.7856755e-01
  1.7281305e+00
  2.2857768e-02
  1.3946885e-02
 -2.5743771e-01
 -2.3165391e-01
  1.5622663e-01
  9.8249000e-01
  4.5542207e-02
 -9.0723622e-01
  3.0945984e-01
  1.6856149e-02
 -1.2157910e-02
  6.5130726e-02
 -2.2623440e-02
  1.9368112e-01
  5.3780186e-03
 -4.7224248e-03
 -4.3184799e-03
  1.3361700e-01
 -3.3184199e-03
  2.1155253e-01
 -3.9131228e-02
  1.0151988e-01
 -5.7938343e-01
 -4.2536998e-01
 -1.3204726e+00
  3.4318638e-01
  2.0316353e-02
 -5.0685847e-01
  7.0326889e-01
  7.2322465e-02
 -1.3281849e-02
  7.0169032e-02
 -2.7385885e-02
 -1.3805168e-02
 -1.0384727e-02
 -7.0624745e-01
 -7.1600318e-01
 -7.5636387e-01
 -5.4043051e-02
 -1.6693425e+00
 -9.4843501e-01
 -9.5821775e-02
 -3.2302678e-01
  9.6740261e-02
 -2.3565665e-01
 -1.1213391e-02
 -5.6649816e-01
 -9.4972074e-02
  2.5710469e-01
 -1.7620553e-01
  3.5803044e-01
  5.0706107e-02
 -4.6381339e-01
  5.8911756e-02
  3.9392404e-02
  8.2140371e-02
  5.6297332e-01
 -1.3272098e-01
 -9.4486497e-02
  7.5339413e-01
 -4.9791507e-02
  5.1267073e-03
 -1.4443026e+00
  1.6415415e+00
 -1.6289337e-02
 -4.2956993e-03
  3.9715201e-02
 -3.2647513e-03
  2.2852676e+00
  5.5947959e-02
  3.5353139e-02
 -1.6126984e-01
  1.1711870e-01
  9.7020060e-01
  9.2789428e-03
 -3.1474715e-03
 -7.2453044e-02
  2.4377224e-01
  1.1585820e-01
  4.5126947e-03
 -1.7269936e-01
  3.6141023e-02
  6.7741829e-03
 -2.2955279e+00
 -4.2169261e-01
 -5.6876186e-02
 -4.2553775e-02
 -3.4902833e-02
 -4.8373960e-02
 -1.0815059e-02
  2.4182484e+00
  2.4112526e-02
 -1.0944835e+00
  2.4088018e-02
  1.9656731e+00
  7.2584157e-03
 -4.9710077e-01
  2.7297878e-01
  5.1644474e-01
  2.0493987e-01
  2.1650091e-02
 -2.3219585e-03
  1.6689470e-01
 -1.2176584e-02
  2.7848186e-03
  2.4410793e-01
  6.9982469e-01
 -1.3333534e+00
 -2.0427279e-01
  1.0062057e-02
  1.7344454e-01
  6.2304474e-02
  4.8142102e-02
  7.6902304e-03
  1.6943717e-01
  1.7279331e-01
  1.6641152e-01
  1.9281994e-01
  1.4919800e-01
  9.0106376e-02
  4.4273302e-01
  1.4849695e+00
  5.2724209e-02
  7.7120070e-03
  7.4340180e-02
  9.6655823e-02
  6.5276563e-02
 -4.5136943e-02
  1.2866559e-02
 -2.2235374e-01
  6.7961443e-04
  4.3325540e-02
  1.7498437e-01
  5.6405403e-02
  1.5888298e-02
  4.5109734e-02
  7.6123807e-03
 -1.9194545e-01
  7.7581242e-02
 -5.1851738e-02
 -1.1116555e+00
 -4.4201452e-02
  7.2411671e-03
 -6.3570067e-02
  2.4946727e-01
 -7.8426242e-01
 -4.0439311e-02
 -6.8014160e-02
  2.5192851e-01
  8.5687906e-02
 -5.2712294e-03
 -7.4082515e-03
  2.4259920e+00
  4.6631373e-02
 -4.2269971e-02
 -2.7790303e+00
 -5.0393647e-01
  9.2615895e-03
  1.8520977e-02
 -2.8789272e+00
 -2.2853728e-01
  7.0991144e-02
 -4.4861907e-01
  1.0297330e-01
  6.0861491e-02
  4.3140355e-01
  4.3805309e-02
  1.9061550e-01
  8.3148175e-01
 -1.3953811e-01
  1.5689515e+00
 -5.2888859e-02
 -4.7813851e-02
  3.2625493e-02
  2.2923985e-02
  1.3061328e-01
 -1.1408587e-02
 -6.1204515e-02
 -1.3009903e-01
  7.2863042e-02
 -4.4602933e+00
  5.0227858e-02
  8.3672279e-01
  7.2812133e-02
 -6.3184881e-01
 -1.4909086e+00
 -1.5140507e+00
 -1.2337639e+00
 -3.1517568e+00
 -5.9575641e-01
 -2.7654488e+00
 -6.6390806e-01
 -5.8308518e-01
  8.1832266e-01
  1.2141476e+00
 -1.9483559e-01
 -1.2127355e+00
 -6.4412169e-02
 -2.6691818e-01
  9.9897802e-01
 -2.5656435e-01
  5.5692118e-01
 -8.7407809e-01
 -9.9242145e-01
  2.2494987e-01
 -3.4531990e-01
  3.0388048e+00
  1.5750628e-02
  6.7261225e-01
  9.8895794e-01
 -3.8168211e-02
 -1.6096961e-01
 -2.0759176e-02
 -1.1436385e-01
 -1.6885931e-03
  1.0013051e-01
 -1.2392483e-01
  4.5115480e-01
  4.9421769e-02
 -2.7311096e-01
  1.5438578e-01
  6.0246527e-02
 -1.8802980e+00
  2.8580943e-02
  1.4078592e-01
  1.1218940e-02
 -4.7562072e-01
  1.2318483e-01
  5.2091771e-01
  1.8327801e-01
 -4.4692583e-02
 -7.7486515e-01
  7.6946214e-02
  7.6276243e-02
 -1.3006192e-01
 -1.5583249e-02
  2.1878103e-02
  2.4091309e-01
  3.9514107e-01
  2.8251985e-02
 -1.3387690e-01
  1.8319794e+00
  7.4199878e-02
 -2.6682594e-01
 -2.5818983e-01
  1.3985395e-02
 -1.3316387e+00
 -4.4244513e-01
  4.9138921e-01
  1.4796546e+00
  1.4068757e+00
 -3.5061127e-01
 -3.6970848e-01
  7.8530896e-01
 -1.5126861e+00
 -6.9228120e-02
 -1.0794795e+00
  1.6580710e-01
  7.8610951e-01
 -9.2676377e-01
  3.0562633e-01
  1.4228485e+00
  8.6132652e-01
  1.2890316e+00
  9.5223732e-02
 -2.2686632e-01
  2.5281467e+00
  4.0469348e-01
 -1.9420079e+00
  5.4084998e-01
 -4.9591132e-02
 -7.6266579e-02
  8.2490098e-01
  4.4134545e-01
  9.5785183e-01
  2.7325459e+00
  8.7510538e-01
  6.0260779e-01
 -2.5430856e+00
  4.8876423e-02
 -3.6239600e-01
 -3.9441645e-02
  1.2290470e-02
  2.5663920e-02
 -8.6908378e-03
 -1.0411955e-01
  3.4720695e-01
 -5.0730865e-02
 -2.4664433e-01
  1.1523696e+00
  4.1623250e-02
  1.5062578e-01
 -1.8926004e-01
  1.1532494e-01
 -1.1464909e+00
 -1.7184111e+00
 -3.0200458e-01
 -1.6436765e-01
  4.2340606e-02
  2.9331986e-02
  4.3085195e-02
 -7.3124245e-02
 -1.3792068e-01
 -2.2825110e+00
 -9.8657515e-03
  5.3134315e-02
 -1.1848141e+00
 -4.8103753e-02
  7.2992109e-02
 -6.3874000e-01
 -2.6369298e-01
 -4.6085578e-01
 -4.6288490e-01
 -1.3037278e-01
 -1.9735077e-01
  3.4031847e-01
  1.3768443e-01
 -6.1176312e-03
  6.7690909e-02
  2.2428825e-01
  3.7814367e-01
  1.1756061e+00
 -6.5525287e-01
  1.5843060e+00
  3.5026148e-01
  5.3751308e-01
 -1.1578448e+00
  1.2651269e-01
  4.4400715e-03
 -7.9846972e-01
  1.3907677e-01
 -2.3683706e-02
 -2.9567099e-01
 -9.2802480e-02
  3.9110743e-03
 -1.7876478e+00
  1.4589585e-01
 -1.2493255e-01
 -6.7608714e-01
  4.2451242e-01
 -1.6201174e-01
  6.8613719e-03
 -5.7300813e-03
 -2.0648245e-02
  7.2095710e-01
 -1.4316005e-02
 -5.0636286e-01
 -8.5875481e-02
 -3.2640135e-01
 -2.1203318e+00
  1.9665061e-01
  2.5794137e-01
 -4.6666458e-01
 -2.2632256e+00
 -2.1021295e+00
  6.5710656e-02
 -1.6151294e-02
 -4.9987155e-01
 -2.0595384e+00
 -5.1612043e-01
 -3.7058283e-02
  2.3936007e-02
 -6.5701455e-02
 -7.0157764e-03
 -7.0184350e-02
  1.2043875e+00
  2.8059878e+00
  9.6836668e-03
  2.0709759e-01
  5.3419080e-02
  9.4750851e-01
 -3.1157672e-01
  1.4227073e-01
  1.8829034e-01
 -4.5287457e-01
  1.9658737e-01
 -1.4326276e-01
 -1.0869780e+00
  9.0086482e-02
 -6.6904915e-03
  6.3991445e-01
  2.9285997e-02
 -1.5249644e-01
  5.4786360e-01
  1.3823540e+00
 -8.3046174e-03
  1.2817347e-02
  9.5506199e-02
 -1.0484691e+00
 -3.6078826e-02
  1.4761155e-02
  1.1596180e-02
 -1.5382764e-01
 -4.3867528e-02
  5.3141121e-02
 -3.8396873e-02
 -2.8884757e-01
 -4.8484750e-02
  1.3057090e-01
  4.5411084e-02
  6.8218648e-02
  1.4217177e-01
  1.3175119e-01
  6.4963393e-02
 -1.2536374e-01
  8.0770738e-02
 -4.3125758e-01
  2.1978800e-01
  4.3303254e-03
 -1.0985306e-02
 -4.4023383e-02
 -1.1904899e-01
 -8.5864568e-01
  5.7488900e-02
 -1.8642229e-01
  2.0081739e-01
  5.5498272e-02
  5.9868813e-02
 -3.6387329e+00
  4.6545573e-02
 -2.6989925e-01
 -1.5809795e-02
 -5.6527771e-02
  1.8159702e+00
  2.5032594e+00
 -9.9735878e-02
 -4.4327106e-02
 -6.7773122e-01
 -5.5981225e-01
  1.3531532e+00
  1.6002144e-01
 -1.2230823e-02
  1.8678514e+00
  2.0954970e-01
  1.4747070e+00
 -8.6054800e-04
 -1.4723995e+00
  3.8370755e-01
 -2.0740651e-01
  6.1129558e-01
  1.9038865e-01
  8.4651083e-02
 -4.1161031e-01
  8.8533670e-01
  8.3197320e-01
  5.2228510e-01
 -1.7417361e+00
 -2.4711066e-01
 -8.8245744e-01
  6.6355467e-02
  2.0872276e-01
  5.7592813e-02
 -2.8771427e-01
  1.6828902e+00
 -7.3908060e-03
 -5.2253496e-02
 -5.1189087e-02
  1.9157984e+00
 -9.4731405e-02
 -7.1627617e-02
 -1.2679802e-01
  1.2256111e+00
 -1.0119133e-01
  1.4330138e+00
  3.9321354e-01
 -2.4245363e-01
 -2.7306400e-02
  2.1453916e-01
 -2.0068674e+00
 -1.5210953e-01
 -6.5696210e-02
 -7.6282702e-02
 -1.9268434e-01
  2.5148759e+00
  1.6970831e-01
 -1.7851325e+00
  2.5454450e-02
  7.1239270e-02
  9.9498414e-02
  1.8566684e+00
  3.1942245e-02
 -3.4681991e-02
 -5.1598758e-03
 -1.4577219e-02
  2.0342338e-01
 -1.8816545e+00
  1.0088998e-01
 -1.1873648e+00
 -6.7134082e-01
  1.0546289e-01
  2.2401271e-02
 -9.0092756e-02
  5.1677978e-01
 -1.0510973e-01
 -6.8315789e-02
 -4.4588797e-02
  5.7339218e-02
  4.3125743e-01
  5.8773494e-01
  8.5781848e-01
  1.0435536e+00
 -6.0954595e-01
  1.5188613e+00
 -1.6196684e+00
  2.9811960e-01
 -3.2451805e-02
 -3.5751510e-01
 -2.8717551e-01
 -1.2420614e+00
 -1.1036766e-01
  5.5612579e-02
  1.3589898e-01
  3.0501442e-02
 -2.1472853e-02
  1.0922821e+00
 -2.9148230e-01
  5.1433285e-04
  2.7738988e-01
  4.2048365e-01
  7.4492478e-01
  4.1705036e-01
  1.1620694e-02
  5.8060449e-01
  9.3606126e-01
  9.7681239e-02
 -3.5131228e-01
 -1.4329109e-01
 -1.3199496e+00
 -3.1487474e-01
 -1.7289217e+00
 -2.2981413e-01
 -4.9406454e-01
  4.7806084e-01
 -6.7665130e-01
 -4.8121193e-01
 -1.9251873e+00
  7.5919378e-01
  1.6155394e+00
 -6.6481888e-02
  3.9838070e-01
  4.2382360e-02
  3.4557623e-01
  4.9183968e-01
  2.1037067e-01
 -4.1512582e-01
 -6.4425117e-01
 -1.1310894e+00
  6.2042344e-01
 -9.2474997e-02
 -2.2945032e-02
  3.8026530e-02
 -1.1144739e-01
 -4.5182567e-02
  2.0653105e+00
 -2.9402473e+00
 -9.5026821e-01
  2.6991281e-01
 -2.4874146e-01
 -2.1163806e-02
 -3.5194334e-02
  7.3955548e-01
  1.2902696e-01
 -1.1656733e+00
  4.8211973e-02
  1.9094310e+00
 -1.4113937e-01
 -2.6764727e-01
  9.2047341e-02
  1.1896056e-01
 -4.5192689e-01
  1.2664674e-01
  3.3049632e-02
 -2.9387815e-02
  8.7161316e-03
  1.2778320e+00
  1.3807927e+00
  3.6408458e-02
 -8.6372137e-01
 -1.8469363e-01
 -5.9928530e-01
 -4.1593716e-01
 -3.1517929e-01
 -4.6618488e-03
  7.8045339e-03
 -1.1213244e+00
  1.5450970e+00
  1.6689032e+00
 -3.8696468e-01
 -1.3044920e+00
 -6.5977263e-01
 -5.4687423e-01
  4.2735848e-01
 -8.8249338e-01
  1.4218177e+00
 -1.3465310e+00
  7.8958738e-01
 -1.9629734e+00
 -9.4579583e-01
  9.5698670e-02
 -8.6431974e-01
  1.6844724e+00
 -3.0519781e-01
 -2.1457665e-01
  3.4915704e-01
 -2.2966886e-01
 -1.4256222e+00
 -1.0512282e+00
 -5.9051281e-01
 -5.9045792e-01
 -8.2596135e-01
 -2.7969971e-01
 -1.6736084e-01
  1.4953974e-01
  4.0606809e-01
  7.8370714e-01
  6.4056534e-01
 -1.7042837e+00
  2.3456460e-01
  1.0787493e+00
 -4.6495959e-02
  1.3404922e-01
 -1.3865842e+00
  2.8449431e-01
  1.1494266e+00
 -1.0662410e+00
 -6.5008140e-01
 -1.0051129e+00
 -3.2866344e-01
  1.5115103e-01
  1.0307275e+00
 -1.0642257e+00
  7.1915066e-01
  8.0317152e-01
 -2.9038566e-01
  2.5680339e+00
  1.5194707e-01
  1.4602867e-01
  2.7504328e-01
  1.0541464e+00
  1.2370241e+00
  3.9281493e-01
  1.5287311e-01
 -1.5362260e-01
 -9.0784848e-01
 -3.4684141e+00
 -1.0977707e-01
 -3.3787850e-01
 -5.0573272e-01
  9.1246015e-01
 -1.4688069e+00
 -6.2319487e-02
 -6.7345258e-03
  2.7998814e-01
 -6.1704916e-01
  6.0115206e-01
 -1.9223901e+00
 -2.8092474e-01
  1.5972307e+00
  2.7991767e+00
 -1.1866622e-01
  8.2635844e-01
  4.3828774e-02
  3.3002549e-01
  1.4005718e+00
 -1.1739696e+00
  1.4292222e+00
  7.1067798e-01
 -4.0843803e-02
  1.5432709e-01
 -6.8949854e-01
  2.0365696e+00
  8.0579907e-01
 -6.5069777e-01
 -1.9380345e+00
  1.1127412e-01
  6.1532152e-01
 -1.3162177e+00
  1.2603207e-01
 -5.4881072e-01
 -3.2090254e-02
 -1.0866951e+00
 -1.1797693e+00
 -1.5432233e+00
  5.2406442e-01
  9.3090340e-02
  9.7405738e-01
 -2.9059653e+00
 -1.9174217e+00
  8.5910541e-01
 -1.5347195e+00
 -1.5025160e-01
 -1.1880583e+00
  2.9279259e-01
  3.3400834e-01
  2.1293805e+00
  1.4778350e-02
 -2.4310464e-01
 -3.7227031e-02
  1.0482632e+00
  5.3948059e+00
  5.1283008e-01
 -4.9645510e-01
  3.3982320e+00
 -2.0417005e-01
  1.2139649e+00
 -2.4934579e-01
  1.7613830e-01
  1.1550592e+00
 -3.4360534e-01
  7.6377100e-01
 -8.7695801e-01
 -7.2474681e-02
  1.1453851e-01
 -7.1866226e-01
  6.6343278e-01
  2.6470393e-01
 -4.7926548e-01
 -1.0480441e+00
 -7.3973233e-01
 -7.3226273e-02
 -5.8637160e-01
  8.3774459e-01
 -6.2073153e-01
  5.6387350e-02
  4.4855532e-01
 -7.4396181e-01
 -4.1757622e-03
 -2.0923421e-01
 -6.4264581e-02
 -2.6457849e-01
 -2.2604959e-02
 -1.1306022e+00
  4.9597576e-02
 -1.8531118e-01
  2.7849402e+00
  1.8120757e+00
 -7.4940872e-01
  8.0804878e-01
 -4.1105998e-01
  2.3036733e-01
 -8.4916867e-02
  2.3001391e-03
 -1.0226908e-01
  4.5508679e-02
 -2.1678750e-01
  3.1482924e-02
 -1.0486945e+00
 -6.0733360e-01
 -6.0684937e-01
 -7.1538341e-01
  2.1365260e-01
  2.8175822e-02
  4.5471406e-01
 -9.2991240e-02
  6.1220932e-03
 -1.7752954e-01
 -1.4444479e+00
  2.2611713e-01
 -1.3991456e+00
  2.4091620e+00
 -1.2076588e+00
 -6.0843819e-01
  1.0693778e+00
  1.5636899e-01
 -3.3155251e-02
  1.7274891e-01
 -8.9168346e-01
  9.8621356e-04
 -1.2037960e+00
 -1.9765666e+00
 -2.7745881e+00
  2.0222428e-01
 -4.5114171e-02
 -1.1452397e+00
  2.3703408e+00
 -5.0166547e-02
  8.8238660e-03
  6.6003543e-01
  2.2124134e-02
  1.5731840e+00
  2.3828719e+00
 -1.9285272e-01
 -3.4321716e-01
  2.8333548e-01
  3.5861566e+00
 -2.1204216e+00
  2.0911723e-01
 -9.8541868e-01
 -1.0450031e-01
 -6.0106933e-01
  3.3196096e+00
  2.8275165e-01
 -1.1679726e+00
 -8.7161386e-01
 -2.2406096e+00
  9.0679772e-02
 -6.5328741e-01
  3.2421257e+00
 -1.6237007e-01
 -2.3146479e+00
 -2.2683582e+00
  7.0694518e-01
 -1.2613072e+00
 -2.0100284e+00
 -3.3667264e+00
  8.1535476e-01
  2.1203544e+00
 -3.6449879e-02
  1.8028363e+00
  8.4812194e-02
  1.0354018e+00
 -1.5758098e+00
 -3.4158418e+00
  3.7546344e+00
 -1.3707547e-02
  2.1575513e+00
 -1.2624617e+00
 -1.5942084e+00
  7.3461674e-02
 -6.4737207e-01
 -2.3113978e+00
 -5.1103252e-01
  1.4019947e+00
  3.1474444e-01
  2.5318879e-01
 -8.1726515e-01
 -9.8017424e-02
  1.8123832e-01
 -7.2553188e-01
 -1.3990605e+00
  9.9417317e-01
 -5.2080262e-01
 -5.0077774e-02
  3.8544765e-01
 -8.2972282e-01
  1.0496318e+00
  6.3798055e-02
  5.1324564e-01
 -2.2170182e-01
  4.9268946e-01
 -6.1992019e-02
  9.5428532e-01
  4.6895194e-01
  1.1856010e+00
 -4.5854127e-01
 -1.0503004e+00
  1.7841964e+00
  2.8762622e+00
 -8.1142616e-01
 -1.2690494e+00
  3.2676277e+00
 -2.2758169e+00
  2.6421833e-01
  9.9712116e-01
 -8.0497339e-02
  2.5102446e+00
 -2.6837692e+00
 -3.4403825e-01
  1.6890938e+00
 -5.2718294e-01
 -3.5877726e+00
  3.4470087e-01
 -4.7692916e-01
 -1.7870373e+00
  3.7411187e+00
 -1.4314896e+00
 -3.1899150e-02
  1.6899087e+00
  2.9725727e-01
 -3.6573577e+00
  5.3399103e-03
  1.6256206e+00
  4.9103612e-01
  9.9214023e-01
  2.0758328e+00
 -4.3344748e-01
  2.3883945e-01
  1.9697735e+00
  1.5133016e-01
 -4.1054330e+00
  1.1700546e+00
 -3.3285600e-01
 -1.5022540e-01
  2.3317124e-01
 -3.5094674e+00
  3.5397809e-03
  2.7724421e-01
 -1.7777479e+00
 -1.8974309e+00
 -2.5483674e-01
 -7.3005956e-01
  8.3633840e-01
 -3.2311502e-01
 -3.2379141e-01
  1.1343595e+00
  8.7607491e-01
  4.6144107e-01
 -5.8383401e-02
 -4.2848009e-01
 -1.3328422e+00
  7.5915551e-01
 -4.6013044e-03
 -6.1124749e-02
 -4.2726046e-01
  1.9428418e+00
  8.5555786e-01
 -1.1424580e+00
 -1.8932687e-01
  1.3967127e-01
  1.6230175e+00
 -4.6144417e-01
  1.9445753e+00
 -7.9421747e-01
 -6.2932469e-02
 -2.0900918e-02
 -7.5188982e-01
  2.3698944e-01
 -7.4464172e-01
  1.7775846e+00
  3.0647147e+00
 -8.8170397e-01
  6.8411046e-01
 -9.0128309e-01
 -1.7570288e-01
  1.3282108e+00
 -1.0122478e+00
 -2.1969373e+00
 -8.9236289e-01
 -3.0161719e+00
 -5.8910390e-03
 -3.6776848e+00
 -1.6345754e-01
 -1.8549201e-01
  3.6953104e+00
 -1.4016304e+00
 -1.1207677e+00
  5.9792403e-02
  1.4473516e+00
 -3.3931664e-01
 -1.5941749e+00
  1.0509565e-01
 -9.0668678e-01
  2.7276537e+00
  2.1855071e-01
 -2.1904533e-01
 -1.4428972e+00
  1.8938400e+00
 -3.3012822e-01
 -8.5231185e-01
  3.0116735e+00
  5.1363856e-01
  4.7155800e-01
 -2.0569429e+00
  2.5941786e-01
 -1.2838386e+00
  1.2683797e+00
 -5.3688657e-02
 -1.7258506e+00
 -8.1147641e-01
  7.7607393e-02
 -3.1470346e+00
 -2.4456313e+00
  1.0706775e-01
  3.3047870e-02
 -5.2417660e-01
  8.8186735e-01
 -1.4495902e-01
  8.1774384e-01
 -2.1252861e+00
  7.5563401e-01
  1.3931413e-01
  3.4350377e-02
 -4.1920421e-01
 -1.7399164e-02
  2.1206610e-02
 -2.7946657e-01
  1.5730940e+00
 -5.7857209e-01
 -3.9190033e-01
 -9.8308241e-01
 -5.3246319e-01
 -2.4970323e-01
 -5.8180571e-01
  5.2480960e-01
 -1.8507491e+00
 -9.1913784e-01
  1.4875960e+00
  1.0035781e+00
  7.0281565e-01
 -6.1977845e-01
 -5.6051296e-01
 -2.8497109e-01
 -7.0261192e-01
 -2.3486342e+00
  2.4179077e-01
  1.3704938e+00
 -7.5343490e-02
 -1.2812736e+00
 -1.3224685e-01
 -1.4241608e+00
 -1.9531204e-01
  7.1707822e-02
  1.4537678e+00
  4.1659439e-01
 -2.3367417e-01
  2.5414145e-01
 -1.3597298e+00
 -1.1169013e+00
  2.2161974e-01
 -1.0140371e+00
  6.5009421e-01
 -8.3360881e-01
  1.1787863e+00
  1.1377043e-01
  1.4201531e-01
 -2.0221524e+00
 -1.8430439e-01
  3.7888247e-01
  4.0729573e-01
  1.3176730e-01
  4.1251788e+00
  1.1983352e+00
 -8.2067716e-01
  8.2388389e-01
  1.1677375e+00
 -9.0177494e-01
 -2.4097072e-02
  4.0839291e-01
 -2.8613076e+00
  2.1277418e-02
  3.8723233e-01
 -1.2616739e+00
  4.7229868e-01
 -9.9680269e-01
  1.1387672e-01
  6.7026478e-01
  5.2529611e-02
  1.5061219e+00
  3.8256818e-01
  2.1262179e-01
  1.4901657e-01
 -5.1469707e-01
  7.4923742e-01
 -3.5451593e+00
 -9.3054539e-03
 -1.5317684e+00
  3.7496725e-01
  1.4083297e+00
  2.7113082e+00
 -3.6937449e-02
  2.9961953e+00
 -1.4562392e+00
  1.4240260e+00
 -1.8731326e-01
  8.8879842e-01
 -4.2445678e-01
  1.2277597e+00
 -3.1180972e-02
 -1.8675532e+00
  2.1608713e+00
  1.0165559e+00
 -6.8925631e-01
 -6.6911846e-01
  1.2234409e+00
 -3.9635453e-01
  2.8935081e-01
 -2.1745424e-01
 -1.0938927e+00
 -1.2724570e+00
 -1.6759118e+00
  1.8806676e+00
  3.3232465e-01
  7.7656388e-01
 -3.9130697e-01
 -1.1394223e+00
 -6.8338549e-01
  2.7702100e+00
  1.7602488e+00
  3.5286030e-01
  1.0454977e+00
 -1.8589662e+00
  1.5589761e+00
  4.1133409e+00
 -1.2451863e-01
 -3.8866967e-02
  1.1193072e+00
  2.4766222e-01
 -2.6528917e-02
  1.0448692e+00
  2.5652590e-01
  9.8995471e-01
 -5.1277518e-01
 -2.9316592e+00
  1.7034698e-01
  7.2247076e-01
  5.2923578e-01
  9.6884090e-01
  1.1811706e+00
  1.6440003e+00
 -1.8909038e+00
 -1.0909477e+00
  4.6894056e-01
 -2.0358822e+00
 -6.9925207e-01
 -8.9931607e-01
  1.4693228e+00
  6.0570025e-01
  8.0373955e-01
 -2.1471121e+00
  9.6590424e-01
  1.1553674e+00
 -5.2032691e-01
 -8.5982874e-02
  5.8619553e-01
  2.7388161e-01
  3.0612278e-01
 -5.1012409e-01
 -6.0994214e-01
  2.4053526e+00
  1.4061354e+00
  1.1597776e+00
 -1.0708419e+00
 -3.0126920e-01
 -1.3550497e+00
 -1.2196149e+00
 -7.5347322e-01
 -7.3871970e-01
  1.5545183e+00
  1.3330711e+00
  2.1132517e+00
  1.0572802e+00
 -1.4264982e+00
 -1.4246051e+00
 -2.5106983e+00
  3.1404849e-02
  1.3723726e+00
  1.7452146e-01
  3.1715660e+00
 -2.9838440e-01
  4.3034643e-01
  8.6705351e-01
  2.5666971e+00
  1.5441126e+00
 -1.6456137e+00
  1.2165923e-01
 -2.7096925e+00
  3.3711958e-01
  1.8159747e+00
 -1.0677143e-01
 -1.2554606e+00
 -7.3988926e-01
 -7.8006119e-01
  1.5418983e+00
  2.4433023e-01
  1.2379119e+00
 -6.9787222e-01
 -2.8092977e-01
 -1.2165945e+00
  2.7386466e-01
  1.0089297e+00
  6.8481040e-01
  1.7258970e-01
 -1.4843420e+00
  1.8139743e+00
  9.8242748e-01
  1.7104779e-01
  1.5731697e+00
  1.6635422e-01
 -1.8348791e-01
  2.0676703e+00
  5.4221052e-01
 -4.8832324e-01
 -6.9109929e-01
  2.9554694e+00
  2.7130061e-01
  2.8685699e+00
  1.4054288e+00
 -1.7344347e-01
  4.2855099e-01
  1.6394383e-01
  1.3612996e+00
 -6.3460338e-01
  4.1292131e-02
 -1.3220642e+00
  1.0843779e+00
  1.1187438e+00
  5.5570078e-01
 -3.2500502e-01
 -1.2935578e+00
  3.6956915e-01
 -5.7560422e-02
 -8.1484103e-01
  1.2479078e+00
 -1.3394341e+00
  1.0519035e+00
  3.5264203e-01
 -8.7921840e-01
  6.7306912e-01
 -2.0849490e+00
 -4.2136532e-01
 -2.7415731e+00
  2.5415727e-01
  2.7857184e-01
  5.1771253e-01
 -8.1606311e-01
 -2.1095605e+00
 -1.5018915e+00
  1.4301749e+00
  6.3246757e-02
  5.4616934e-01
  1.5574306e+00
  4.8021829e-01
  2.9249710e-01
  1.6023371e-01
  2.4511085e+00
 -1.2514295e-02
 -6.0234219e-01
  4.3375948e-01
  8.6976248e-01
 -1.8297288e-01
 -1.9228488e+00
 -2.3742917e+00
 -1.2319421e+00
  2.3084841e+00
 -4.9780038e-01
  4.1781197e+00
  2.7863957e-02
 -2.5350264e-01
 -2.9915335e+00
  2.1779834e-01
 -4.9419677e-01
  1.1426237e+00
 -8.9516662e-02
  1.4545182e+00
  2.3382103e+00
 -3.6693212e-01
 -6.3012499e-01
 -8.5458469e-01
  2.1160030e+00
  3.4988401e+00
  1.2018415e+00
  2.5131114e+00
  6.7469698e-01
  8.9180693e-02
 -1.0353470e-01
 -3.3133909e-01
 -2.6126620e-01
  2.1458652e+00
  2.5388594e+00
 -2.4324109e-01
  2.1702406e+00
  4.9413511e-01
 -1.2800493e+00
 -4.0718492e-02
 -1.3710562e+00
 -3.6527368e-01
 -8.1512034e-01
 -8.1104112e-01
 -4.4107264e-01
 -1.5750619e+00
 -1.7386571e+00
 -1.2935546e-01
 -3.8043782e-01
 -2.3398230e+00
 -2.9829258e-04
 -1.0651299e+00
 -1.3377312e+00
 -5.2151507e-01
 -4.6751797e-01
 -1.1428862e+00
 -8.1286937e-01
 -1.7138158e+00
  1.4787936e-01
 -6.5720201e-01
 -3.2626772e-01
 -8.1232643e-01
  1.6574237e-01
 -8.4011918e-01
 -1.4237788e-01
 -2.0206163e+00
  8.2908118e-01
 -1.7046299e+00
 -1.6762925e+00
 -3.5954726e-01
 -7.7173039e-02
  2.2219658e+00
  7.6733750e-01
  7.3831981e-01
 -6.4622307e-01
  2.8418070e-01
 -7.2752845e-01
  1.3792213e+00
  1.2262008e+00
 -1.8623220e+00
 -1.8543569e+00
  1.0655546e+00
 -3.7264219e-01
  2.4843381e-01
 -1.5145463e-01
  2.7046633e+00
  1.4574105e-01
  2.2541165e+00
 -1.4507766e+00
 -5.5332132e-02
 -1.7510796e+00
 -2.1163821e-01
 -1.6131803e-01
  2.7132592e-01
 -1.0507197e+00
  2.5847824e+00
  8.9055276e-01
  2.8044739e+00
 -7.2377288e-01
 -1.5552089e+00
  7.3080957e-01
  1.6213039e-01
 -1.6046796e+00
 -2.4684910e-01
  1.6333920e-01
 -6.1949497e-01
  2.1250393e+00
  5.9893894e-01
  1.5176021e+00
  8.5629165e-02
  5.9833908e-01
  2.9362385e+00
 -4.5664021e-01
  1.6982468e+00
 -7.3205715e-01
  3.6419243e-01
  2.8766158e+00
 -1.7131463e+00
 -6.5604013e-01
  3.5043004e-01
  5.5466536e-02
 -2.0508080e+00
  7.3354822e-01
 -8.3869547e-01
 -1.4001763e+00
  3.1079638e-01
 -3.2368615e-01
 -1.3012899e+00
  1.3362731e+00
  4.4583711e-01
 -1.8886646e+00
  1.8114082e+00
  3.5428520e-02
  6.8402451e-01
 -2.3327289e+00
  5.1937717e-01
 -6.8504006e-01
  1.5568682e+00
 -2.0851536e+00
 -6.7475748e-01
  2.6940372e+00
 -1.3783977e+00
 -7.0505756e-01
 -2.0717425e+00
  2.2337830e+00
 -8.4364867e-01
 -4.5931542e-01
  2.0395987e+00
  1.0711410e+00
  3.7340492e-01
 -1.2319751e+00
  2.6767805e-01
  1.6636122e+00
 -1.2311437e+00
  1.6775185e+00
 -1.0645679e+00
 -9.2113510e-02
 -2.3001654e+00
 -4.3757886e-01
  6.4722963e-02
 -1.1967835e+00
  9.0605378e-01
 -9.5969826e-01
  6.7181654e-02
  1.1916649e+00
  1.3908862e+00
  1.8663261e+00
 -6.1508320e-02
  1.5455015e+00
 -1.1406988e-01
  1.3750615e+00
  2.2489400e+00
 -1.3593603e+00
  1.3424654e+00
 -9.6417046e-01
 -1.4045541e+00
  8.6859517e-02
  1.9047637e+00
 -2.1896088e+00
 -3.9396377e+00
  1.4598985e+00
 -2.1588814e+00
  4.4128540e-01
 -2.3424920e-01
  1.4532299e+00
 -1.9401005e-01
  7.1888518e-01
 -4.1365284e-01
  6.9997543e-01
 -2.0012915e+00
 -1.0961468e+00
 -2.2678313e+00
  6.4583981e-01
  6.7209065e-01
  4.3076281e-02
 -9.3514538e-01
 -1.7821494e+00
 -6.1041629e-01
 -3.2018056e+00
 -1.8977968e-02
 -5.1162511e-01
 -3.6344698e-01
 -7.7791643e-01
  7.6127075e-02
 -4.6751904e-01
  2.7007878e-01
  8.5983890e-01
  9.2033547e-01
  7.9073006e-01
  1.1078126e+00
  1.7586563e+00
  1.7787460e+00
  9.3856096e-01
 -3.2122061e-01
 -1.7902395e-02
 -5.3841829e-01
  1.1415809e+00
  4.0127251e-01
  2.0394166e+00
  2.7893357e+00
  1.1881588e+00
  8.6891741e-01
 -1.6541509e-01
 -7.7833094e-02
  2.5666385e+00
  1.3559062e+00
 -1.2500037e-02
 -1.7071143e+00
 -5.3571910e-01
  7.4474788e-01
 -1.0483037e+00
  4.1530682e-03
  4.1530682e-03
  4.1530682e-03
  4.1530682e-03
  4.1530682e-03
  1.8834297e-02
  1.8834297e-02
  1.8834297e-02
  1.8834297e-02
  1.8834297e-02
  4.4325616e-02
  4.4325616e-02
  4.4325616e-02
  4.4325616e-02
  4.4325616e-02
  1.2964854e-02
  1.2964854e-02
  1.2964854e-02
  1.2964854e-02
  1.2964854e-02
  1.2385773e-02
  1.2385773e-02
  1.2385773e-02
  1.2385773e-02
  1.2385773e-02
  2.4944918e-02
  2.4944918e-02
  2.4944918e-02
  2.4944918e-02
  2.4944918e-02
